digraph Tree {
node [shape=box] ;
0 [label="B <= -0.052\ngini = 0.667\nsamples = 500\nvalue = [166, 167, 167]\nclass = C2"] ;
1 [label="B <= -1.035\ngini = 0.336\nsamples = 162\nvalue = [130, 19, 13]\nclass = C1"] ;
0 -> 1 [labeldistance=2.5, labelangle=45, headlabel="True"] ;
2 [label="A <= 1.611\ngini = 0.092\nsamples = 84\nvalue = [80, 2, 2]\nclass = C1"] ;
1 -> 2 ;
3 [label="C <= 2.335\ngini = 0.048\nsamples = 82\nvalue = [80, 2, 0]\nclass = C1"] ;
2 -> 3 ;
4 [label="A <= -0.707\ngini = 0.025\nsamples = 80\nvalue = [79, 1, 0]\nclass = C1"] ;
3 -> 4 ;
5 [label="A <= -0.735\ngini = 0.219\nsamples = 8\nvalue = [7, 1, 0]\nclass = C1"] ;
4 -> 5 ;
6 [label="gini = 0.0\nsamples = 7\nvalue = [7, 0, 0]\nclass = C1"] ;
5 -> 6 ;
7 [label="gini = 0.0\nsamples = 1\nvalue = [0, 1, 0]\nclass = C2"] ;
5 -> 7 ;
8 [label="gini = 0.0\nsamples = 72\nvalue = [72, 0, 0]\nclass = C1"] ;
4 -> 8 ;
9 [label="A <= -0.114\ngini = 0.5\nsamples = 2\nvalue = [1, 1, 0]\nclass = C1"] ;
3 -> 9 ;
10 [label="gini = 0.0\nsamples = 1\nvalue = [0, 1, 0]\nclass = C2"] ;
9 -> 10 ;
11 [label="gini = 0.0\nsamples = 1\nvalue = [1, 0, 0]\nclass = C1"] ;
9 -> 11 ;
12 [label="gini = 0.0\nsamples = 2\nvalue = [0, 0, 2]\nclass = C3"] ;
2 -> 12 ;
13 [label="A <= 0.85\ngini = 0.522\nsamples = 78\nvalue = [50, 17, 11]\nclass = C1"] ;
1 -> 13 ;
14 [label="C <= 1.054\ngini = 0.552\nsamples = 23\nvalue = [5, 14, 4]\nclass = C2"] ;
13 -> 14 ;
15 [label="B <= -0.483\ngini = 0.62\nsamples = 10\nvalue = [5, 2, 3]\nclass = C1"] ;
14 -> 15 ;
16 [label="B <= -1.01\ngini = 0.408\nsamples = 7\nvalue = [5, 2, 0]\nclass = C1"] ;
15 -> 16 ;
17 [label="gini = 0.0\nsamples = 1\nvalue = [0, 1, 0]\nclass = C2"] ;
16 -> 17 ;
18 [label="C <= -1.129\ngini = 0.278\nsamples = 6\nvalue = [5, 1, 0]\nclass = C1"] ;
16 -> 18 ;
19 [label="C <= -1.458\ngini = 0.5\nsamples = 2\nvalue = [1, 1, 0]\nclass = C1"] ;
18 -> 19 ;
20 [label="gini = 0.0\nsamples = 1\nvalue = [1, 0, 0]\nclass = C1"] ;
19 -> 20 ;
21 [label="gini = 0.0\nsamples = 1\nvalue = [0, 1, 0]\nclass = C2"] ;
19 -> 21 ;
22 [label="gini = 0.0\nsamples = 4\nvalue = [4, 0, 0]\nclass = C1"] ;
18 -> 22 ;
23 [label="gini = 0.0\nsamples = 3\nvalue = [0, 0, 3]\nclass = C3"] ;
15 -> 23 ;
24 [label="A <= 0.586\ngini = 0.142\nsamples = 13\nvalue = [0, 12, 1]\nclass = C2"] ;
14 -> 24 ;
25 [label="gini = 0.0\nsamples = 10\nvalue = [0, 10, 0]\nclass = C2"] ;
24 -> 25 ;
26 [label="A <= 0.747\ngini = 0.444\nsamples = 3\nvalue = [0, 2, 1]\nclass = C2"] ;
24 -> 26 ;
27 [label="gini = 0.0\nsamples = 1\nvalue = [0, 0, 1]\nclass = C3"] ;
26 -> 27 ;
28 [label="gini = 0.0\nsamples = 2\nvalue = [0, 2, 0]\nclass = C2"] ;
26 -> 28 ;
29 [label="A <= 2.578\ngini = 0.311\nsamples = 55\nvalue = [45, 3, 7]\nclass = C1"] ;
13 -> 29 ;
30 [label="B <= -0.964\ngini = 0.233\nsamples = 52\nvalue = [45, 0, 7]\nclass = C1"] ;
29 -> 30 ;
31 [label="gini = 0.0\nsamples = 1\nvalue = [0, 0, 1]\nclass = C3"] ;
30 -> 31 ;
32 [label="A <= 1.341\ngini = 0.208\nsamples = 51\nvalue = [45, 0, 6]\nclass = C1"] ;
30 -> 32 ;
33 [label="C <= 0.217\ngini = 0.355\nsamples = 26\nvalue = [20, 0, 6]\nclass = C1"] ;
32 -> 33 ;
34 [label="gini = 0.0\nsamples = 10\nvalue = [10, 0, 0]\nclass = C1"] ;
33 -> 34 ;
35 [label="B <= -0.728\ngini = 0.469\nsamples = 16\nvalue = [10, 0, 6]\nclass = C1"] ;
33 -> 35 ;
36 [label="A <= 1.183\ngini = 0.198\nsamples = 9\nvalue = [8, 0, 1]\nclass = C1"] ;
35 -> 36 ;
37 [label="gini = 0.0\nsamples = 5\nvalue = [5, 0, 0]\nclass = C1"] ;
36 -> 37 ;
38 [label="A <= 1.207\ngini = 0.375\nsamples = 4\nvalue = [3, 0, 1]\nclass = C1"] ;
36 -> 38 ;
39 [label="gini = 0.0\nsamples = 1\nvalue = [0, 0, 1]\nclass = C3"] ;
38 -> 39 ;
40 [label="gini = 0.0\nsamples = 3\nvalue = [3, 0, 0]\nclass = C1"] ;
38 -> 40 ;
41 [label="C <= 0.859\ngini = 0.408\nsamples = 7\nvalue = [2, 0, 5]\nclass = C3"] ;
35 -> 41 ;
42 [label="gini = 0.0\nsamples = 4\nvalue = [0, 0, 4]\nclass = C3"] ;
41 -> 42 ;
43 [label="A <= 1.116\ngini = 0.444\nsamples = 3\nvalue = [2, 0, 1]\nclass = C1"] ;
41 -> 43 ;
44 [label="gini = 0.0\nsamples = 1\nvalue = [0, 0, 1]\nclass = C3"] ;
43 -> 44 ;
45 [label="gini = 0.0\nsamples = 2\nvalue = [2, 0, 0]\nclass = C1"] ;
43 -> 45 ;
46 [label="gini = 0.0\nsamples = 25\nvalue = [25, 0, 0]\nclass = C1"] ;
32 -> 46 ;
47 [label="gini = 0.0\nsamples = 3\nvalue = [0, 3, 0]\nclass = C2"] ;
29 -> 47 ;
48 [label="A <= 0.127\ngini = 0.589\nsamples = 338\nvalue = [36, 148, 154]\nclass = C3"] ;
0 -> 48 [labeldistance=2.5, labelangle=-45, headlabel="False"] ;
49 [label="A <= -0.868\ngini = 0.266\nsamples = 171\nvalue = [0, 27, 144]\nclass = C3"] ;
48 -> 49 ;
50 [label="B <= 0.674\ngini = 0.096\nsamples = 99\nvalue = [0, 5, 94]\nclass = C3"] ;
49 -> 50 ;
51 [label="gini = 0.0\nsamples = 2\nvalue = [0, 2, 0]\nclass = C2"] ;
50 -> 51 ;
52 [label="C <= -0.391\ngini = 0.06\nsamples = 97\nvalue = [0, 3, 94]\nclass = C3"] ;
50 -> 52 ;
53 [label="A <= -1.609\ngini = 0.444\nsamples = 3\nvalue = [0, 1, 2]\nclass = C3"] ;
52 -> 53 ;
54 [label="gini = 0.0\nsamples = 1\nvalue = [0, 1, 0]\nclass = C2"] ;
53 -> 54 ;
55 [label="gini = 0.0\nsamples = 2\nvalue = [0, 0, 2]\nclass = C3"] ;
53 -> 55 ;
56 [label="A <= -1.227\ngini = 0.042\nsamples = 94\nvalue = [0, 2, 92]\nclass = C3"] ;
52 -> 56 ;
57 [label="gini = 0.0\nsamples = 66\nvalue = [0, 0, 66]\nclass = C3"] ;
56 -> 57 ;
58 [label="B <= 1.272\ngini = 0.133\nsamples = 28\nvalue = [0, 2, 26]\nclass = C3"] ;
56 -> 58 ;
59 [label="gini = 0.0\nsamples = 25\nvalue = [0, 0, 25]\nclass = C3"] ;
58 -> 59 ;
60 [label="C <= 1.822\ngini = 0.444\nsamples = 3\nvalue = [0, 2, 1]\nclass = C2"] ;
58 -> 60 ;
61 [label="gini = 0.0\nsamples = 2\nvalue = [0, 2, 0]\nclass = C2"] ;
60 -> 61 ;
62 [label="gini = 0.0\nsamples = 1\nvalue = [0, 0, 1]\nclass = C3"] ;
60 -> 62 ;
63 [label="B <= 0.908\ngini = 0.424\nsamples = 72\nvalue = [0, 22, 50]\nclass = C3"] ;
49 -> 63 ;
64 [label="B <= 0.089\ngini = 0.278\nsamples = 60\nvalue = [0, 10, 50]\nclass = C3"] ;
63 -> 64 ;
65 [label="gini = 0.0\nsamples = 2\nvalue = [0, 2, 0]\nclass = C2"] ;
64 -> 65 ;
66 [label="A <= -0.825\ngini = 0.238\nsamples = 58\nvalue = [0, 8, 50]\nclass = C3"] ;
64 -> 66 ;
67 [label="gini = 0.0\nsamples = 1\nvalue = [0, 1, 0]\nclass = C2"] ;
66 -> 67 ;
68 [label="B <= 0.583\ngini = 0.215\nsamples = 57\nvalue = [0, 7, 50]\nclass = C3"] ;
66 -> 68 ;
69 [label="A <= -0.426\ngini = 0.35\nsamples = 31\nvalue = [0, 7, 24]\nclass = C3"] ;
68 -> 69 ;
70 [label="B <= 0.488\ngini = 0.469\nsamples = 8\nvalue = [0, 5, 3]\nclass = C2"] ;
69 -> 70 ;
71 [label="gini = 0.0\nsamples = 4\nvalue = [0, 4, 0]\nclass = C2"] ;
70 -> 71 ;
72 [label="B <= 0.569\ngini = 0.375\nsamples = 4\nvalue = [0, 1, 3]\nclass = C3"] ;
70 -> 72 ;
73 [label="gini = 0.0\nsamples = 3\nvalue = [0, 0, 3]\nclass = C3"] ;
72 -> 73 ;
74 [label="gini = 0.0\nsamples = 1\nvalue = [0, 1, 0]\nclass = C2"] ;
72 -> 74 ;
75 [label="B <= 0.555\ngini = 0.159\nsamples = 23\nvalue = [0, 2, 21]\nclass = C3"] ;
69 -> 75 ;
76 [label="A <= -0.03\ngini = 0.087\nsamples = 22\nvalue = [0, 1, 21]\nclass = C3"] ;
75 -> 76 ;
77 [label="gini = 0.0\nsamples = 16\nvalue = [0, 0, 16]\nclass = C3"] ;
76 -> 77 ;
78 [label="A <= 0.008\ngini = 0.278\nsamples = 6\nvalue = [0, 1, 5]\nclass = C3"] ;
76 -> 78 ;
79 [label="gini = 0.0\nsamples = 1\nvalue = [0, 1, 0]\nclass = C2"] ;
78 -> 79 ;
80 [label="gini = 0.0\nsamples = 5\nvalue = [0, 0, 5]\nclass = C3"] ;
78 -> 80 ;
81 [label="gini = 0.0\nsamples = 1\nvalue = [0, 1, 0]\nclass = C2"] ;
75 -> 81 ;
82 [label="gini = 0.0\nsamples = 26\nvalue = [0, 0, 26]\nclass = C3"] ;
68 -> 82 ;
83 [label="gini = 0.0\nsamples = 12\nvalue = [0, 12, 0]\nclass = C2"] ;
63 -> 83 ;
84 [label="A <= 1.879\ngini = 0.425\nsamples = 167\nvalue = [36, 121, 10]\nclass = C2"] ;
48 -> 84 ;
85 [label="B <= 0.193\ngini = 0.27\nsamples = 98\nvalue = [5, 83, 10]\nclass = C2"] ;
84 -> 85 ;
86 [label="A <= 0.605\ngini = 0.567\nsamples = 17\nvalue = [3, 4, 10]\nclass = C3"] ;
85 -> 86 ;
87 [label="B <= 0.138\ngini = 0.165\nsamples = 11\nvalue = [0, 1, 10]\nclass = C3"] ;
86 -> 87 ;
88 [label="gini = 0.0\nsamples = 9\nvalue = [0, 0, 9]\nclass = C3"] ;
87 -> 88 ;
89 [label="A <= 0.273\ngini = 0.5\nsamples = 2\nvalue = [0, 1, 1]\nclass = C2"] ;
87 -> 89 ;
90 [label="gini = 0.0\nsamples = 1\nvalue = [0, 0, 1]\nclass = C3"] ;
89 -> 90 ;
91 [label="gini = 0.0\nsamples = 1\nvalue = [0, 1, 0]\nclass = C2"] ;
89 -> 91 ;
92 [label="B <= 0.014\ngini = 0.5\nsamples = 6\nvalue = [3, 3, 0]\nclass = C1"] ;
86 -> 92 ;
93 [label="gini = 0.0\nsamples = 2\nvalue = [0, 2, 0]\nclass = C2"] ;
92 -> 93 ;
94 [label="A <= 1.126\ngini = 0.375\nsamples = 4\nvalue = [3, 1, 0]\nclass = C1"] ;
92 -> 94 ;
95 [label="gini = 0.0\nsamples = 1\nvalue = [0, 1, 0]\nclass = C2"] ;
94 -> 95 ;
96 [label="gini = 0.0\nsamples = 3\nvalue = [3, 0, 0]\nclass = C1"] ;
94 -> 96 ;
97 [label="C <= -0.494\ngini = 0.048\nsamples = 81\nvalue = [2, 79, 0]\nclass = C2"] ;
85 -> 97 ;
98 [label="A <= 1.394\ngini = 0.408\nsamples = 7\nvalue = [2, 5, 0]\nclass = C2"] ;
97 -> 98 ;
99 [label="B <= 1.418\ngini = 0.278\nsamples = 6\nvalue = [1, 5, 0]\nclass = C2"] ;
98 -> 99 ;
100 [label="gini = 0.0\nsamples = 4\nvalue = [0, 4, 0]\nclass = C2"] ;
99 -> 100 ;
101 [label="B <= 1.871\ngini = 0.5\nsamples = 2\nvalue = [1, 1, 0]\nclass = C1"] ;
99 -> 101 ;
102 [label="gini = 0.0\nsamples = 1\nvalue = [1, 0, 0]\nclass = C1"] ;
101 -> 102 ;
103 [label="gini = 0.0\nsamples = 1\nvalue = [0, 1, 0]\nclass = C2"] ;
101 -> 103 ;
104 [label="gini = 0.0\nsamples = 1\nvalue = [1, 0, 0]\nclass = C1"] ;
98 -> 104 ;
105 [label="gini = 0.0\nsamples = 74\nvalue = [0, 74, 0]\nclass = C2"] ;
97 -> 105 ;
106 [label="B <= 0.872\ngini = 0.495\nsamples = 69\nvalue = [31, 38, 0]\nclass = C2"] ;
84 -> 106 ;
107 [label="A <= 2.735\ngini = 0.422\nsamples = 33\nvalue = [23, 10, 0]\nclass = C1"] ;
106 -> 107 ;
108 [label="A <= 2.687\ngini = 0.48\nsamples = 25\nvalue = [15, 10, 0]\nclass = C1"] ;
107 -> 108 ;
109 [label="A <= 2.392\ngini = 0.434\nsamples = 22\nvalue = [15, 7, 0]\nclass = C1"] ;
108 -> 109 ;
110 [label="B <= 0.525\ngini = 0.498\nsamples = 15\nvalue = [8, 7, 0]\nclass = C1"] ;
109 -> 110 ;
111 [label="B <= 0.357\ngini = 0.42\nsamples = 10\nvalue = [7, 3, 0]\nclass = C1"] ;
110 -> 111 ;
112 [label="A <= 2.214\ngini = 0.49\nsamples = 7\nvalue = [4, 3, 0]\nclass = C1"] ;
111 -> 112 ;
113 [label="B <= 0.104\ngini = 0.48\nsamples = 5\nvalue = [2, 3, 0]\nclass = C2"] ;
112 -> 113 ;
114 [label="C <= 2.043\ngini = 0.444\nsamples = 3\nvalue = [2, 1, 0]\nclass = C1"] ;
113 -> 114 ;
115 [label="gini = 0.0\nsamples = 2\nvalue = [2, 0, 0]\nclass = C1"] ;
114 -> 115 ;
116 [label="gini = 0.0\nsamples = 1\nvalue = [0, 1, 0]\nclass = C2"] ;
114 -> 116 ;
117 [label="gini = 0.0\nsamples = 2\nvalue = [0, 2, 0]\nclass = C2"] ;
113 -> 117 ;
118 [label="gini = 0.0\nsamples = 2\nvalue = [2, 0, 0]\nclass = C1"] ;
112 -> 118 ;
119 [label="gini = 0.0\nsamples = 3\nvalue = [3, 0, 0]\nclass = C1"] ;
111 -> 119 ;
120 [label="C <= 0.241\ngini = 0.32\nsamples = 5\nvalue = [1, 4, 0]\nclass = C2"] ;
110 -> 120 ;
121 [label="gini = 0.0\nsamples = 1\nvalue = [1, 0, 0]\nclass = C1"] ;
120 -> 121 ;
122 [label="gini = 0.0\nsamples = 4\nvalue = [0, 4, 0]\nclass = C2"] ;
120 -> 122 ;
123 [label="gini = 0.0\nsamples = 7\nvalue = [7, 0, 0]\nclass = C1"] ;
109 -> 123 ;
124 [label="gini = 0.0\nsamples = 3\nvalue = [0, 3, 0]\nclass = C2"] ;
108 -> 124 ;
125 [label="gini = 0.0\nsamples = 8\nvalue = [8, 0, 0]\nclass = C1"] ;
107 -> 125 ;
126 [label="B <= 1.687\ngini = 0.346\nsamples = 36\nvalue = [8, 28, 0]\nclass = C2"] ;
106 -> 126 ;
127 [label="A <= 2.485\ngini = 0.463\nsamples = 22\nvalue = [8, 14, 0]\nclass = C2"] ;
126 -> 127 ;
128 [label="gini = 0.0\nsamples = 6\nvalue = [0, 6, 0]\nclass = C2"] ;
127 -> 128 ;
129 [label="A <= 2.675\ngini = 0.5\nsamples = 16\nvalue = [8, 8, 0]\nclass = C1"] ;
127 -> 129 ;
130 [label="gini = 0.0\nsamples = 3\nvalue = [3, 0, 0]\nclass = C1"] ;
129 -> 130 ;
131 [label="C <= 0.9\ngini = 0.473\nsamples = 13\nvalue = [5, 8, 0]\nclass = C2"] ;
129 -> 131 ;
132 [label="A <= 2.809\ngini = 0.245\nsamples = 7\nvalue = [1, 6, 0]\nclass = C2"] ;
131 -> 132 ;
133 [label="C <= 0.14\ngini = 0.5\nsamples = 2\nvalue = [1, 1, 0]\nclass = C1"] ;
132 -> 133 ;
134 [label="gini = 0.0\nsamples = 1\nvalue = [1, 0, 0]\nclass = C1"] ;
133 -> 134 ;
135 [label="gini = 0.0\nsamples = 1\nvalue = [0, 1, 0]\nclass = C2"] ;
133 -> 135 ;
136 [label="gini = 0.0\nsamples = 5\nvalue = [0, 5, 0]\nclass = C2"] ;
132 -> 136 ;
137 [label="B <= 1.214\ngini = 0.444\nsamples = 6\nvalue = [4, 2, 0]\nclass = C1"] ;
131 -> 137 ;
138 [label="B <= 0.979\ngini = 0.444\nsamples = 3\nvalue = [1, 2, 0]\nclass = C2"] ;
137 -> 138 ;
139 [label="gini = 0.0\nsamples = 1\nvalue = [1, 0, 0]\nclass = C1"] ;
138 -> 139 ;
140 [label="gini = 0.0\nsamples = 2\nvalue = [0, 2, 0]\nclass = C2"] ;
138 -> 140 ;
141 [label="gini = 0.0\nsamples = 3\nvalue = [3, 0, 0]\nclass = C1"] ;
137 -> 141 ;
142 [label="gini = 0.0\nsamples = 14\nvalue = [0, 14, 0]\nclass = C2"] ;
126 -> 142 ;
}